digraph Tree {
node [shape=box, style="filled", color="black", fontname="helvetica"] ;
edge [fontname="helvetica"] ;
0 [label="petal length (cm) <= 5.45\ngini = 0.667\nsamples = 150\nvalue = [50, 50, 50]\nclass = setosa", fillcolor="#ffffff"] ;
1 [label="petal width (cm) <= 2.8\ngini = 0.237\nsamples = 52\nvalue = [45, 6, 1]\nclass = setosa", fillcolor="#e99457"] ;
0 -> 1 [labeldistance=2.5, labelangle=45, headlabel="True"] ;
2 [label="gini = 0.449\nsamples = 7\nvalue = [1, 5, 1]\nclass = versicolor", fillcolor="#7beeab"] ;
1 -> 2 ;
3 [label="gini = 0.043\nsamples = 45\nvalue = [44, 1, 0]\nclass = setosa", fillcolor="#e6843d"] ;
1 -> 3 ;
4 [label="petal length (cm) <= 6.15\ngini = 0.546\nsamples = 98\nvalue = [5, 44, 49]\nclass = virginica", fillcolor="#f3edfd"] ;
0 -> 4 [labeldistance=2.5, labelangle=-45, headlabel="False"] ;
5 [label="gini = 0.508\nsamples = 43\nvalue = [5, 28, 10]\nclass = versicolor", fillcolor="#93f1ba"] ;
4 -> 5 ;
6 [label="gini = 0.413\nsamples = 55\nvalue = [0, 16, 39]\nclass = virginica", fillcolor="#b58af0"] ;
4 -> 6 ;
}